digraph Tree {
node [shape=box] ;
0 [label="YearsAtCompany <= 1.5\ngini = 0.27\nsamples = 4410\nvalue = [3699, 711]"] ;
1 [label="Age <= 33.5\ngini = 0.454\nsamples = 645\nvalue = [420, 225]"] ;
0 -> 1 [labeldistance=2.5, labelangle=45, headlabel="True"] ;
2 [label="MonthlyIncome <= 112610.0\ngini = 0.497\nsamples = 306\nvalue = [141, 165]"] ;
1 -> 2 ;
3 [label="Age <= 22.5\ngini = 0.486\nsamples = 267\nvalue = [111, 156]"] ;
2 -> 3 ;
4 [label="MonthlyIncome <= 23140.0\ngini = 0.33\nsamples = 72\nvalue = [15, 57]"] ;
3 -> 4 ;
5 [label="gini = 0.0\nsamples = 3\nvalue = [3, 0]"] ;
4 -> 5 ;
6 [label="Age <= 18.5\ngini = 0.287\nsamples = 69\nvalue = [12, 57]"] ;
4 -> 6 ;
7 [label="DistanceFromHome <= 4.0\ngini = 0.49\nsamples = 21\nvalue = [9, 12]"] ;
6 -> 7 ;
8 [label="PercentSalaryHike <= 20.0\ngini = 0.32\nsamples = 15\nvalue = [3, 12]"] ;
7 -> 8 ;
9 [label="gini = 0.0\nsamples = 12\nvalue = [0, 12]"] ;
8 -> 9 ;
10 [label="gini = 0.0\nsamples = 3\nvalue = [3, 0]"] ;
8 -> 10 ;
11 [label="gini = 0.0\nsamples = 6\nvalue = [6, 0]"] ;
7 -> 11 ;
12 [label="MonthlyIncome <= 106255.0\ngini = 0.117\nsamples = 48\nvalue = [3, 45]"] ;
6 -> 12 ;
13 [label="gini = 0.0\nsamples = 45\nvalue = [0, 45]"] ;
12 -> 13 ;
14 [label="gini = 0.0\nsamples = 3\nvalue = [3, 0]"] ;
12 -> 14 ;
15 [label="JobRole <= 7.5\ngini = 0.5\nsamples = 195\nvalue = [96, 99]"] ;
3 -> 15 ;
16 [label="MonthlyIncome <= 72530.0\ngini = 0.498\nsamples = 186\nvalue = [87, 99]"] ;
15 -> 16 ;
17 [label="DistanceFromHome <= 2.5\ngini = 0.5\nsamples = 162\nvalue = [81, 81]"] ;
16 -> 17 ;
18 [label="YearsWithCurrManager <= 0.5\ngini = 0.444\nsamples = 45\nvalue = [15, 30]"] ;
17 -> 18 ;
19 [label="PercentSalaryHike <= 23.5\ngini = 0.408\nsamples = 42\nvalue = [12, 30]"] ;
18 -> 19 ;
20 [label="gini = 0.355\nsamples = 39\nvalue = [9, 30]"] ;
19 -> 20 ;
21 [label="gini = 0.0\nsamples = 3\nvalue = [3, 0]"] ;
19 -> 21 ;
22 [label="gini = 0.0\nsamples = 3\nvalue = [3, 0]"] ;
18 -> 22 ;
23 [label="YearsWithCurrManager <= 0.5\ngini = 0.492\nsamples = 117\nvalue = [66, 51]"] ;
17 -> 23 ;
24 [label="DistanceFromHome <= 10.5\ngini = 0.482\nsamples = 111\nvalue = [66, 45]"] ;
23 -> 24 ;
25 [label="gini = 0.423\nsamples = 69\nvalue = [48, 21]"] ;
24 -> 25 ;
26 [label="gini = 0.49\nsamples = 42\nvalue = [18, 24]"] ;
24 -> 26 ;
27 [label="gini = 0.0\nsamples = 6\nvalue = [0, 6]"] ;
23 -> 27 ;
28 [label="DistanceFromHome <= 1.5\ngini = 0.375\nsamples = 24\nvalue = [6, 18]"] ;
16 -> 28 ;
29 [label="PercentSalaryHike <= 12.0\ngini = 0.444\nsamples = 9\nvalue = [6, 3]"] ;
28 -> 29 ;
30 [label="gini = 0.0\nsamples = 3\nvalue = [0, 3]"] ;
29 -> 30 ;
31 [label="gini = 0.0\nsamples = 6\nvalue = [6, 0]"] ;
29 -> 31 ;
32 [label="gini = 0.0\nsamples = 15\nvalue = [0, 15]"] ;
28 -> 32 ;
33 [label="gini = 0.0\nsamples = 9\nvalue = [9, 0]"] ;
15 -> 33 ;
34 [label="DistanceFromHome <= 5.0\ngini = 0.355\nsamples = 39\nvalue = [30, 9]"] ;
2 -> 34 ;
35 [label="gini = 0.0\nsamples = 21\nvalue = [21, 0]"] ;
34 -> 35 ;
36 [label="JobRole <= 4.0\ngini = 0.5\nsamples = 18\nvalue = [9, 9]"] ;
34 -> 36 ;
37 [label="NumCompaniesWorked <= 1.5\ngini = 0.375\nsamples = 12\nvalue = [9, 3]"] ;
36 -> 37 ;
38 [label="gini = 0.0\nsamples = 9\nvalue = [9, 0]"] ;
37 -> 38 ;
39 [label="gini = 0.0\nsamples = 3\nvalue = [0, 3]"] ;
37 -> 39 ;
40 [label="gini = 0.0\nsamples = 6\nvalue = [0, 6]"] ;
36 -> 40 ;
41 [label="DistanceFromHome <= 2.5\ngini = 0.291\nsamples = 339\nvalue = [279, 60]"] ;
1 -> 41 ;
42 [label="NumCompaniesWorked <= 8.5\ngini = 0.414\nsamples = 123\nvalue = [87, 36]"] ;
41 -> 42 ;
43 [label="Age <= 39.5\ngini = 0.381\nsamples = 117\nvalue = [87, 30]"] ;
42 -> 43 ;
44 [label="Age <= 38.5\ngini = 0.492\nsamples = 48\nvalue = [27, 21]"] ;
43 -> 44 ;
45 [label="DistanceFromHome <= 1.5\ngini = 0.426\nsamples = 39\nvalue = [27, 12]"] ;
44 -> 45 ;
46 [label="gini = 0.0\nsamples = 12\nvalue = [12, 0]"] ;
45 -> 46 ;
47 [label="NumCompaniesWorked <= 5.0\ngini = 0.494\nsamples = 27\nvalue = [15, 12]"] ;
45 -> 47 ;
48 [label="YearsWithCurrManager <= 0.5\ngini = 0.408\nsamples = 21\nvalue = [15, 6]"] ;
47 -> 48 ;
49 [label="gini = 0.278\nsamples = 18\nvalue = [15, 3]"] ;
48 -> 49 ;
50 [label="gini = 0.0\nsamples = 3\nvalue = [0, 3]"] ;
48 -> 50 ;
51 [label="gini = 0.0\nsamples = 6\nvalue = [0, 6]"] ;
47 -> 51 ;
52 [label="gini = 0.0\nsamples = 9\nvalue = [0, 9]"] ;
44 -> 52 ;
53 [label="MonthlyIncome <= 96355.0\ngini = 0.227\nsamples = 69\nvalue = [60, 9]"] ;
43 -> 53 ;
54 [label="JobRole <= 1.5\ngini = 0.105\nsamples = 54\nvalue = [51, 3]"] ;
53 -> 54 ;
55 [label="Age <= 40.5\ngini = 0.444\nsamples = 9\nvalue = [6, 3]"] ;
54 -> 55 ;
56 [label="gini = 0.0\nsamples = 3\nvalue = [0, 3]"] ;
55 -> 56 ;
57 [label="gini = 0.0\nsamples = 6\nvalue = [6, 0]"] ;
55 -> 57 ;
58 [label="gini = 0.0\nsamples = 45\nvalue = [45, 0]"] ;
54 -> 58 ;
59 [label="NumCompaniesWorked <= 3.5\ngini = 0.48\nsamples = 15\nvalue = [9, 6]"] ;
53 -> 59 ;
60 [label="NumCompaniesWorked <= 2.5\ngini = 0.444\nsamples = 9\nvalue = [3, 6]"] ;
59 -> 60 ;
61 [label="gini = 0.0\nsamples = 3\nvalue = [3, 0]"] ;
60 -> 61 ;
62 [label="gini = 0.0\nsamples = 6\nvalue = [0, 6]"] ;
60 -> 62 ;
63 [label="gini = 0.0\nsamples = 6\nvalue = [6, 0]"] ;
59 -> 63 ;
64 [label="gini = 0.0\nsamples = 6\nvalue = [0, 6]"] ;
42 -> 64 ;
65 [label="Age <= 57.0\ngini = 0.198\nsamples = 216\nvalue = [192, 24]"] ;
41 -> 65 ;
66 [label="MonthlyIncome <= 106980.0\ngini = 0.165\nsamples = 198\nvalue = [180, 18]"] ;
65 -> 66 ;
67 [label="PercentSalaryHike <= 13.5\ngini = 0.103\nsamples = 165\nvalue = [156, 9]"] ;
66 -> 67 ;
68 [label="DistanceFromHome <= 14.5\ngini = 0.211\nsamples = 75\nvalue = [66, 9]"] ;
67 -> 68 ;
69 [label="NumCompaniesWorked <= 6.5\ngini = 0.1\nsamples = 57\nvalue = [54, 3]"] ;
68 -> 69 ;
70 [label="gini = 0.0\nsamples = 48\nvalue = [48, 0]"] ;
69 -> 70 ;
71 [label="Age <= 39.0\ngini = 0.444\nsamples = 9\nvalue = [6, 3]"] ;
69 -> 71 ;
72 [label="gini = 0.0\nsamples = 3\nvalue = [0, 3]"] ;
71 -> 72 ;
73 [label="gini = 0.0\nsamples = 6\nvalue = [6, 0]"] ;
71 -> 73 ;
74 [label="DistanceFromHome <= 19.5\ngini = 0.444\nsamples = 18\nvalue = [12, 6]"] ;
68 -> 74 ;
75 [label="MonthlyIncome <= 34145.0\ngini = 0.444\nsamples = 9\nvalue = [3, 6]"] ;
74 -> 75 ;
76 [label="gini = 0.0\nsamples = 3\nvalue = [3, 0]"] ;
75 -> 76 ;
77 [label="gini = 0.0\nsamples = 6\nvalue = [0, 6]"] ;
75 -> 77 ;
78 [label="gini = 0.0\nsamples = 9\nvalue = [9, 0]"] ;
74 -> 78 ;
79 [label="gini = 0.0\nsamples = 90\nvalue = [90, 0]"] ;
67 -> 79 ;
80 [label="PercentSalaryHike <= 14.5\ngini = 0.397\nsamples = 33\nvalue = [24, 9]"] ;
66 -> 80 ;
81 [label="gini = 0.0\nsamples = 15\nvalue = [15, 0]"] ;
80 -> 81 ;
82 [label="NumCompaniesWorked <= 4.5\ngini = 0.5\nsamples = 18\nvalue = [9, 9]"] ;
80 -> 82 ;
83 [label="NumCompaniesWorked <= 0.5\ngini = 0.375\nsamples = 12\nvalue = [9, 3]"] ;
82 -> 83 ;
84 [label="gini = 0.0\nsamples = 3\nvalue = [0, 3]"] ;
83 -> 84 ;
85 [label="gini = 0.0\nsamples = 9\nvalue = [9, 0]"] ;
83 -> 85 ;
86 [label="gini = 0.0\nsamples = 6\nvalue = [0, 6]"] ;
82 -> 86 ;
87 [label="JobRole <= 6.5\ngini = 0.444\nsamples = 18\nvalue = [12, 6]"] ;
65 -> 87 ;
88 [label="gini = 0.0\nsamples = 9\nvalue = [9, 0]"] ;
87 -> 88 ;
89 [label="JobRole <= 7.5\ngini = 0.444\nsamples = 9\nvalue = [3, 6]"] ;
87 -> 89 ;
90 [label="gini = 0.0\nsamples = 6\nvalue = [0, 6]"] ;
89 -> 90 ;
91 [label="gini = 0.0\nsamples = 3\nvalue = [3, 0]"] ;
89 -> 91 ;
92 [label="Age <= 33.5\ngini = 0.225\nsamples = 3765\nvalue = [3279, 486]"] ;
0 -> 92 [labeldistance=2.5, labelangle=-45, headlabel="False"] ;
93 [label="NumCompaniesWorked <= 4.5\ngini = 0.298\nsamples = 1416\nvalue = [1158, 258]"] ;
92 -> 93 ;
94 [label="YearsAtCompany <= 3.5\ngini = 0.252\nsamples = 1193\nvalue = [1017, 176]"] ;
93 -> 94 ;
95 [label="MonthlyIncome <= 176015.0\ngini = 0.356\nsamples = 285\nvalue = [219, 66]"] ;
94 -> 95 ;
96 [label="DistanceFromHome <= 7.5\ngini = 0.314\nsamples = 261\nvalue = [210, 51]"] ;
95 -> 96 ;
97 [label="JobRole <= 5.5\ngini = 0.201\nsamples = 132\nvalue = [117, 15]"] ;
96 -> 97 ;
98 [label="gini = 0.0\nsamples = 54\nvalue = [54, 0]"] ;
97 -> 98 ;
99 [label="DistanceFromHome <= 4.5\ngini = 0.311\nsamples = 78\nvalue = [63, 15]"] ;
97 -> 99 ;
100 [label="DistanceFromHome <= 3.5\ngini = 0.401\nsamples = 54\nvalue = [39, 15]"] ;
99 -> 100 ;
101 [label="gini = 0.305\nsamples = 48\nvalue = [39, 9]"] ;
100 -> 101 ;
102 [label="gini = 0.0\nsamples = 6\nvalue = [0, 6]"] ;
100 -> 102 ;
103 [label="gini = 0.0\nsamples = 24\nvalue = [24, 0]"] ;
99 -> 103 ;
104 [label="DistanceFromHome <= 15.5\ngini = 0.402\nsamples = 129\nvalue = [93, 36]"] ;
96 -> 104 ;
105 [label="NumCompaniesWorked <= 2.5\ngini = 0.476\nsamples = 69\nvalue = [42, 27]"] ;
104 -> 105 ;
106 [label="Age <= 24.0\ngini = 0.42\nsamples = 60\nvalue = [42, 18]"] ;
105 -> 106 ;
107 [label="gini = 0.444\nsamples = 18\nvalue = [6, 12]"] ;
106 -> 107 ;
108 [label="gini = 0.245\nsamples = 42\nvalue = [36, 6]"] ;
106 -> 108 ;
109 [label="gini = 0.0\nsamples = 9\nvalue = [0, 9]"] ;
105 -> 109 ;
110 [label="MonthlyIncome <= 26985.0\ngini = 0.255\nsamples = 60\nvalue = [51, 9]"] ;
104 -> 110 ;
111 [label="Age <= 30.5\ngini = 0.444\nsamples = 9\nvalue = [3, 6]"] ;
110 -> 111 ;
112 [label="gini = 0.0\nsamples = 3\nvalue = [3, 0]"] ;
111 -> 112 ;
113 [label="gini = 0.0\nsamples = 6\nvalue = [0, 6]"] ;
111 -> 113 ;
114 [label="Age <= 21.5\ngini = 0.111\nsamples = 51\nvalue = [48, 3]"] ;
110 -> 114 ;
115 [label="gini = 0.375\nsamples = 12\nvalue = [9, 3]"] ;
114 -> 115 ;
116 [label="gini = 0.0\nsamples = 39\nvalue = [39, 0]"] ;
114 -> 116 ;
117 [label="MonthlyIncome <= 191665.0\ngini = 0.469\nsamples = 24\nvalue = [9, 15]"] ;
95 -> 117 ;
118 [label="gini = 0.0\nsamples = 12\nvalue = [0, 12]"] ;
117 -> 118 ;
119 [label="MonthlyIncome <= 197020.0\ngini = 0.375\nsamples = 12\nvalue = [9, 3]"] ;
117 -> 119 ;
120 [label="gini = 0.0\nsamples = 9\nvalue = [9, 0]"] ;
119 -> 120 ;
121 [label="gini = 0.0\nsamples = 3\nvalue = [0, 3]"] ;
119 -> 121 ;
122 [label="DistanceFromHome <= 26.5\ngini = 0.213\nsamples = 908\nvalue = [798, 110]"] ;
94 -> 122 ;
123 [label="YearsAtCompany <= 9.5\ngini = 0.195\nsamples = 859\nvalue = [765, 94]"] ;
122 -> 123 ;
124 [label="Age <= 26.5\ngini = 0.158\nsamples = 637\nvalue = [582, 55]"] ;
123 -> 124 ;
125 [label="DistanceFromHome <= 21.0\ngini = 0.282\nsamples = 159\nvalue = [132, 27]"] ;
124 -> 125 ;
126 [label="YearsAtCompany <= 5.5\ngini = 0.241\nsamples = 150\nvalue = [129, 21]"] ;
125 -> 126 ;
127 [label="gini = 0.128\nsamples = 87\nvalue = [81, 6]"] ;
126 -> 127 ;
128 [label="gini = 0.363\nsamples = 63\nvalue = [48, 15]"] ;
126 -> 128 ;
129 [label="YearsAtCompany <= 5.5\ngini = 0.444\nsamples = 9\nvalue = [3, 6]"] ;
125 -> 129 ;
130 [label="gini = 0.0\nsamples = 3\nvalue = [3, 0]"] ;
129 -> 130 ;
131 [label="gini = 0.0\nsamples = 6\nvalue = [0, 6]"] ;
129 -> 131 ;
132 [label="DistanceFromHome <= 3.5\ngini = 0.11\nsamples = 478\nvalue = [450, 28]"] ;
124 -> 132 ;
133 [label="NumCompaniesWorked <= 3.5\ngini = 0.197\nsamples = 172\nvalue = [153, 19]"] ;
132 -> 133 ;
134 [label="gini = 0.152\nsamples = 157\nvalue = [144, 13]"] ;
133 -> 134 ;
135 [label="gini = 0.48\nsamples = 15\nvalue = [9, 6]"] ;
133 -> 135 ;
136 [label="MonthlyIncome <= 187450.0\ngini = 0.057\nsamples = 306\nvalue = [297, 9]"] ;
132 -> 136 ;
137 [label="gini = 0.04\nsamples = 297\nvalue = [291, 6]"] ;
136 -> 137 ;
138 [label="gini = 0.444\nsamples = 9\nvalue = [6, 3]"] ;
136 -> 138 ;
139 [label="JobRole <= 6.5\ngini = 0.29\nsamples = 222\nvalue = [183, 39]"] ;
123 -> 139 ;
140 [label="MonthlyIncome <= 17940.0\ngini = 0.201\nsamples = 159\nvalue = [141, 18]"] ;
139 -> 140 ;
141 [label="gini = 0.0\nsamples = 3\nvalue = [0, 3]"] ;
140 -> 141 ;
142 [label="Age <= 31.5\ngini = 0.174\nsamples = 156\nvalue = [141, 15]"] ;
140 -> 142 ;
143 [label="gini = 0.057\nsamples = 102\nvalue = [99, 3]"] ;
142 -> 143 ;
144 [label="gini = 0.346\nsamples = 54\nvalue = [42, 12]"] ;
142 -> 144 ;
145 [label="DistanceFromHome <= 7.0\ngini = 0.444\nsamples = 63\nvalue = [42, 21]"] ;
139 -> 145 ;
146 [label="MonthlyIncome <= 183840.0\ngini = 0.496\nsamples = 33\nvalue = [15, 18]"] ;
145 -> 146 ;
147 [label="gini = 0.444\nsamples = 27\nvalue = [9, 18]"] ;
146 -> 147 ;
148 [label="gini = 0.0\nsamples = 6\nvalue = [6, 0]"] ;
146 -> 148 ;
149 [label="DistanceFromHome <= 12.5\ngini = 0.18\nsamples = 30\nvalue = [27, 3]"] ;
145 -> 149 ;
150 [label="gini = 0.0\nsamples = 21\nvalue = [21, 0]"] ;
149 -> 150 ;
151 [label="gini = 0.444\nsamples = 9\nvalue = [6, 3]"] ;
149 -> 151 ;
152 [label="YearsAtCompany <= 7.5\ngini = 0.44\nsamples = 49\nvalue = [33, 16]"] ;
122 -> 152 ;
153 [label="MonthlyIncome <= 46375.0\ngini = 0.49\nsamples = 28\nvalue = [12, 16]"] ;
152 -> 153 ;
154 [label="gini = 0.0\nsamples = 13\nvalue = [0, 13]"] ;
153 -> 154 ;
155 [label="DistanceFromHome <= 27.5\ngini = 0.32\nsamples = 15\nvalue = [12, 3]"] ;
153 -> 155 ;
156 [label="gini = 0.0\nsamples = 3\nvalue = [0, 3]"] ;
155 -> 156 ;
157 [label="gini = 0.0\nsamples = 12\nvalue = [12, 0]"] ;
155 -> 157 ;
158 [label="gini = 0.0\nsamples = 21\nvalue = [21, 0]"] ;
152 -> 158 ;
159 [label="NumCompaniesWorked <= 7.5\ngini = 0.465\nsamples = 223\nvalue = [141, 82]"] ;
93 -> 159 ;
160 [label="JobRole <= 6.5\ngini = 0.499\nsamples = 148\nvalue = [78, 70]"] ;
159 -> 160 ;
161 [label="MonthlyIncome <= 122625.0\ngini = 0.493\nsamples = 109\nvalue = [48, 61]"] ;
160 -> 161 ;
162 [label="JobRole <= 0.5\ngini = 0.476\nsamples = 100\nvalue = [39, 61]"] ;
161 -> 162 ;
163 [label="NumCompaniesWorked <= 5.5\ngini = 0.32\nsamples = 15\nvalue = [12, 3]"] ;
162 -> 163 ;
164 [label="gini = 0.0\nsamples = 3\nvalue = [0, 3]"] ;
163 -> 164 ;
165 [label="gini = 0.0\nsamples = 12\nvalue = [12, 0]"] ;
163 -> 165 ;
166 [label="Age <= 29.5\ngini = 0.433\nsamples = 85\nvalue = [27, 58]"] ;
162 -> 166 ;
167 [label="YearsWithCurrManager <= 0.5\ngini = 0.175\nsamples = 31\nvalue = [3, 28]"] ;
166 -> 167 ;
168 [label="gini = 0.48\nsamples = 5\nvalue = [3, 2]"] ;
167 -> 168 ;
169 [label="gini = 0.0\nsamples = 26\nvalue = [0, 26]"] ;
167 -> 169 ;
170 [label="PercentSalaryHike <= 21.5\ngini = 0.494\nsamples = 54\nvalue = [24, 30]"] ;
166 -> 170 ;
171 [label="gini = 0.498\nsamples = 45\nvalue = [24, 21]"] ;
170 -> 171 ;
172 [label="gini = 0.0\nsamples = 9\nvalue = [0, 9]"] ;
170 -> 172 ;
173 [label="gini = 0.0\nsamples = 9\nvalue = [9, 0]"] ;
161 -> 173 ;
174 [label="DistanceFromHome <= 14.5\ngini = 0.355\nsamples = 39\nvalue = [30, 9]"] ;
160 -> 174 ;
175 [label="NumCompaniesWorked <= 5.5\ngini = 0.278\nsamples = 36\nvalue = [30, 6]"] ;
174 -> 175 ;
176 [label="DistanceFromHome <= 5.0\ngini = 0.5\nsamples = 12\nvalue = [6, 6]"] ;
175 -> 176 ;
177 [label="gini = 0.0\nsamples = 6\nvalue = [6, 0]"] ;
176 -> 177 ;
178 [label="gini = 0.0\nsamples = 6\nvalue = [0, 6]"] ;
176 -> 178 ;
179 [label="gini = 0.0\nsamples = 24\nvalue = [24, 0]"] ;
175 -> 179 ;
180 [label="gini = 0.0\nsamples = 3\nvalue = [0, 3]"] ;
174 -> 180 ;
181 [label="Age <= 26.5\ngini = 0.269\nsamples = 75\nvalue = [63, 12]"] ;
159 -> 181 ;
182 [label="YearsAtCompany <= 3.0\ngini = 0.444\nsamples = 9\nvalue = [3, 6]"] ;
181 -> 182 ;
183 [label="gini = 0.0\nsamples = 6\nvalue = [0, 6]"] ;
182 -> 183 ;
184 [label="gini = 0.0\nsamples = 3\nvalue = [3, 0]"] ;
182 -> 184 ;
185 [label="PercentSalaryHike <= 23.5\ngini = 0.165\nsamples = 66\nvalue = [60, 6]"] ;
181 -> 185 ;
186 [label="PercentSalaryHike <= 21.5\ngini = 0.091\nsamples = 63\nvalue = [60, 3]"] ;
185 -> 186 ;
187 [label="gini = 0.0\nsamples = 54\nvalue = [54, 0]"] ;
186 -> 187 ;
188 [label="Age <= 31.0\ngini = 0.444\nsamples = 9\nvalue = [6, 3]"] ;
186 -> 188 ;
189 [label="gini = 0.0\nsamples = 3\nvalue = [3, 0]"] ;
188 -> 189 ;
190 [label="Age <= 32.5\ngini = 0.5\nsamples = 6\nvalue = [3, 3]"] ;
188 -> 190 ;
191 [label="gini = 0.0\nsamples = 3\nvalue = [0, 3]"] ;
190 -> 191 ;
192 [label="gini = 0.0\nsamples = 3\nvalue = [3, 0]"] ;
190 -> 192 ;
193 [label="gini = 0.0\nsamples = 3\nvalue = [0, 3]"] ;
185 -> 193 ;
194 [label="YearsAtCompany <= 38.5\ngini = 0.175\nsamples = 2349\nvalue = [2121, 228]"] ;
92 -> 194 ;
195 [label="MonthlyIncome <= 10300.0\ngini = 0.173\nsamples = 2346\nvalue = [2121, 225]"] ;
194 -> 195 ;
196 [label="gini = 0.0\nsamples = 3\nvalue = [0, 3]"] ;
195 -> 196 ;
197 [label="YearsWithCurrManager <= 0.5\ngini = 0.172\nsamples = 2343\nvalue = [2121, 222]"] ;
195 -> 197 ;
198 [label="Age <= 41.5\ngini = 0.343\nsamples = 123\nvalue = [96, 27]"] ;
197 -> 198 ;
199 [label="DistanceFromHome <= 22.5\ngini = 0.444\nsamples = 63\nvalue = [42, 21]"] ;
198 -> 199 ;
200 [label="MonthlyIncome <= 45305.0\ngini = 0.388\nsamples = 57\nvalue = [42, 15]"] ;
199 -> 200 ;
201 [label="YearsAtCompany <= 10.5\ngini = 0.165\nsamples = 33\nvalue = [30, 3]"] ;
200 -> 201 ;
202 [label="gini = 0.0\nsamples = 30\nvalue = [30, 0]"] ;
201 -> 202 ;
203 [label="gini = 0.0\nsamples = 3\nvalue = [0, 3]"] ;
201 -> 203 ;
204 [label="DistanceFromHome <= 1.5\ngini = 0.5\nsamples = 24\nvalue = [12, 12]"] ;
200 -> 204 ;
205 [label="gini = 0.0\nsamples = 12\nvalue = [12, 0]"] ;
204 -> 205 ;
206 [label="gini = 0.0\nsamples = 12\nvalue = [0, 12]"] ;
204 -> 206 ;
207 [label="gini = 0.0\nsamples = 6\nvalue = [0, 6]"] ;
199 -> 207 ;
208 [label="MonthlyIncome <= 160900.0\ngini = 0.18\nsamples = 60\nvalue = [54, 6]"] ;
198 -> 208 ;
209 [label="PercentSalaryHike <= 20.0\ngini = 0.1\nsamples = 57\nvalue = [54, 3]"] ;
208 -> 209 ;
210 [label="gini = 0.0\nsamples = 51\nvalue = [51, 0]"] ;
209 -> 210 ;
211 [label="JobRole <= 5.0\ngini = 0.5\nsamples = 6\nvalue = [3, 3]"] ;
209 -> 211 ;
212 [label="gini = 0.0\nsamples = 3\nvalue = [3, 0]"] ;
211 -> 212 ;
213 [label="gini = 0.0\nsamples = 3\nvalue = [0, 3]"] ;
211 -> 213 ;
214 [label="gini = 0.0\nsamples = 3\nvalue = [0, 3]"] ;
208 -> 214 ;
215 [label="MonthlyIncome <= 67975.0\ngini = 0.16\nsamples = 2220\nvalue = [2025, 195]"] ;
197 -> 215 ;
216 [label="MonthlyIncome <= 67450.0\ngini = 0.191\nsamples = 1518\nvalue = [1356, 162]"] ;
215 -> 216 ;
217 [label="DistanceFromHome <= 3.5\ngini = 0.185\nsamples = 1509\nvalue = [1353, 156]"] ;
216 -> 217 ;
218 [label="YearsWithCurrManager <= 13.5\ngini = 0.084\nsamples = 477\nvalue = [456, 21]"] ;
217 -> 218 ;
219 [label="gini = 0.063\nsamples = 459\nvalue = [444, 15]"] ;
218 -> 219 ;
220 [label="gini = 0.444\nsamples = 18\nvalue = [12, 6]"] ;
218 -> 220 ;
221 [label="DistanceFromHome <= 19.5\ngini = 0.227\nsamples = 1032\nvalue = [897, 135]"] ;
217 -> 221 ;
222 [label="gini = 0.271\nsamples = 780\nvalue = [654, 126]"] ;
221 -> 222 ;
223 [label="gini = 0.069\nsamples = 252\nvalue = [243, 9]"] ;
221 -> 223 ;
224 [label="PercentSalaryHike <= 15.0\ngini = 0.444\nsamples = 9\nvalue = [3, 6]"] ;
216 -> 224 ;
225 [label="gini = 0.0\nsamples = 6\nvalue = [0, 6]"] ;
224 -> 225 ;
226 [label="gini = 0.0\nsamples = 3\nvalue = [3, 0]"] ;
224 -> 226 ;
227 [label="Age <= 45.5\ngini = 0.09\nsamples = 702\nvalue = [669, 33]"] ;
215 -> 227 ;
228 [label="YearsAtCompany <= 21.5\ngini = 0.056\nsamples = 522\nvalue = [507, 15]"] ;
227 -> 228 ;
229 [label="Age <= 35.5\ngini = 0.046\nsamples = 507\nvalue = [495, 12]"] ;
228 -> 229 ;
230 [label="gini = 0.133\nsamples = 126\nvalue = [117, 9]"] ;
229 -> 230 ;
231 [label="gini = 0.016\nsamples = 381\nvalue = [378, 3]"] ;
229 -> 231 ;
232 [label="MonthlyIncome <= 101035.0\ngini = 0.32\nsamples = 15\nvalue = [12, 3]"] ;
228 -> 232 ;
233 [label="gini = 0.0\nsamples = 12\nvalue = [12, 0]"] ;
232 -> 233 ;
234 [label="gini = 0.0\nsamples = 3\nvalue = [0, 3]"] ;
232 -> 234 ;
235 [label="NumCompaniesWorked <= 8.5\ngini = 0.18\nsamples = 180\nvalue = [162, 18]"] ;
227 -> 235 ;
236 [label="MonthlyIncome <= 196200.0\ngini = 0.155\nsamples = 177\nvalue = [162, 15]"] ;
235 -> 236 ;
237 [label="gini = 0.131\nsamples = 171\nvalue = [159, 12]"] ;
236 -> 237 ;
238 [label="gini = 0.5\nsamples = 6\nvalue = [3, 3]"] ;
236 -> 238 ;
239 [label="gini = 0.0\nsamples = 3\nvalue = [0, 3]"] ;
235 -> 239 ;
240 [label="gini = 0.0\nsamples = 3\nvalue = [0, 3]"] ;
194 -> 240 ;
}